Language model created by QuickLM on Mon Jun 27 11:25:23 EDT 2022
Copyright (c) 1996-2010 Carnegie Mellon University and Alexander I. Rudnicky

The model is in standard ARPA format, designed by Doug Paul while he was at MITRE.

The code that was used to produce this language model is available in Open Source.
Please visit http://www.speech.cs.cmu.edu/tools/ for more information

The (fixed) discount mass is 0.5. The backoffs are computed using the ratio method.
This model based on a corpus of 18 sentences and 23 words

\data\
ngram 1=23
ngram 2=39
ngram 3=39

\1-grams:
-0.9266 </s> -0.3010
-0.9266 <s> -0.2365
-2.1818 AND -0.2982
-1.7047 CHROME -0.2463
-1.7047 CLOSE -0.2806
-2.1818 FACEBOOK -0.2463
-2.1818 GITHUB -0.2463
-2.1818 GMAIL -0.2463
-1.8808 ILLUSTRATOR -0.2463
-2.1818 IN -0.2982
-2.1818 MY -0.2982
-1.3367 OPEN -0.2684
-1.8808 PHOTOSHOP -0.2463
-1.5798 PLAY -0.2865
-2.1818 POP -0.2924
-1.8808 SEARCH -0.2463
-2.1818 SIDE -0.2463
-1.7047 SONG -0.2463
-2.1818 STARE -0.2463
-1.8808 STOP -0.2894
-2.1818 SUPERHERO -0.2924
-2.1818 THORN -0.2982
-2.1818 YOUTUBE -0.2463

\2-grams:
-1.5563 <s> CHROME 0.0000
-1.0792 <s> CLOSE 0.0000
-0.7112 <s> OPEN -0.0000
-0.9542 <s> PLAY 0.0000
-1.2553 <s> SEARCH 0.0000
-1.5563 <s> STOP -0.1761
-0.3010 AND STARE 0.0000
-0.3010 CHROME </s> -0.3010
-0.7782 CLOSE CHROME 0.0000
-0.7782 CLOSE ILLUSTRATOR 0.0000
-0.7782 CLOSE PHOTOSHOP 0.0000
-0.3010 FACEBOOK </s> -0.3010
-0.3010 GITHUB </s> -0.3010
-0.3010 GMAIL </s> -0.3010
-0.3010 ILLUSTRATOR </s> -0.3010
-0.3010 IN MY 0.0000
-0.3010 MY SIDE 0.0000
-1.1461 OPEN CHROME 0.0000
-1.1461 OPEN FACEBOOK 0.0000
-1.1461 OPEN GITHUB 0.0000
-1.1461 OPEN GMAIL 0.0000
-1.1461 OPEN ILLUSTRATOR 0.0000
-1.1461 OPEN PHOTOSHOP 0.0000
-1.1461 OPEN YOUTUBE 0.0000
-0.3010 PHOTOSHOP </s> -0.3010
-0.9031 PLAY POP 0.0000
-0.9031 PLAY STOP -0.1761
-0.9031 PLAY SUPERHERO 0.0000
-0.9031 PLAY THORN 0.0000
-0.3010 POP SONG 0.0000
-0.3010 SEARCH </s> -0.3010
-0.3010 SIDE </s> -0.3010
-0.3010 SONG </s> -0.3010
-0.3010 STARE </s> -0.3010
-0.6021 STOP AND 0.0000
-0.6021 STOP SONG 0.0000
-0.3010 SUPERHERO SONG 0.0000
-0.3010 THORN IN 0.0000
-0.3010 YOUTUBE </s> -0.3010

\3-grams:
-0.3010 <s> CHROME </s>
-0.7782 <s> CLOSE CHROME
-0.7782 <s> CLOSE ILLUSTRATOR
-0.7782 <s> CLOSE PHOTOSHOP
-1.1461 <s> OPEN CHROME
-1.1461 <s> OPEN FACEBOOK
-1.1461 <s> OPEN GITHUB
-1.1461 <s> OPEN GMAIL
-1.1461 <s> OPEN ILLUSTRATOR
-1.1461 <s> OPEN PHOTOSHOP
-1.1461 <s> OPEN YOUTUBE
-0.9031 <s> PLAY POP
-0.9031 <s> PLAY STOP
-0.9031 <s> PLAY SUPERHERO
-0.9031 <s> PLAY THORN
-0.3010 <s> SEARCH </s>
-0.3010 <s> STOP SONG
-0.3010 AND STARE </s>
-0.3010 CLOSE CHROME </s>
-0.3010 CLOSE ILLUSTRATOR </s>
-0.3010 CLOSE PHOTOSHOP </s>
-0.3010 IN MY SIDE
-0.3010 MY SIDE </s>
-0.3010 OPEN CHROME </s>
-0.3010 OPEN FACEBOOK </s>
-0.3010 OPEN GITHUB </s>
-0.3010 OPEN GMAIL </s>
-0.3010 OPEN ILLUSTRATOR </s>
-0.3010 OPEN PHOTOSHOP </s>
-0.3010 OPEN YOUTUBE </s>
-0.3010 PLAY POP SONG
-0.3010 PLAY STOP AND
-0.3010 PLAY SUPERHERO SONG
-0.3010 PLAY THORN IN
-0.3010 POP SONG </s>
-0.3010 STOP AND STARE
-0.3010 STOP SONG </s>
-0.3010 SUPERHERO SONG </s>
-0.3010 THORN IN MY

\end\
